    0.268291   -0.0711406     0.217945    0.0534593    0.0124195   -0.0588597     0.636682     0.138151   -0.0704104     0.187599     -0.10433     0.124921    0.0554672     0.163623   -0.0752044   -0.0963121    0.0984681   -0.0385015
   -0.054174     0.132885   -0.0724335   -0.0599232   -0.0858557     0.100435   -0.0015674     0.450453   -0.0411994     0.050261    0.0319942  -0.00202661   -0.0331033     0.133031     0.144767     0.165721   -0.0293901   -0.0690619
 -0.00416789     0.054114     0.205271    -0.374154   -0.0595751     0.212029     0.128276    -0.237344     0.909381   -0.0786009    0.0286429    -0.162285     0.279325    0.0475534    0.0961513     0.128021   -0.0145145  -0.00482036
    0.185055    0.0163534 -0.000330489     0.164998   -0.0751496   -0.0174308      0.31591   -0.0220043   -0.0421801    0.0668211    -0.272125   -0.0764317     0.200281     0.144629     0.017818     0.284952     0.104378    -0.114357
  -0.0186509    -0.212514    0.0430113   -0.0025629     0.322193   0.00849068     0.128557     0.178237   -0.0335591    0.0155967     0.328736     0.067709     0.206063   -0.0288637   -0.0249009    -0.293023     0.364721    -0.132886
    0.310092   -0.0018574   -0.0552672    -0.205481    0.0424805    0.0226843     0.296446    0.0323683   -0.0111662    -0.222096     0.156716     0.502582   -0.0201085    -0.067039     0.197198    -0.198016    -0.100624    0.0604911
    0.251348   -0.0370771     0.292193    0.0964039     0.119131   -0.0875824     0.212191     0.192154    -0.127207   0.00391417   -0.0925548    0.0157016     0.528049    0.0462123   -0.0887569    0.0505628   -0.0460366     0.080922
    0.167169    0.0782118    -0.089762   -0.0466303    -0.130143    0.0823676    -0.166186   -0.0546826   -0.0290772     0.266504    0.0540795    0.0267913    -0.109183     0.677411     0.120135   -0.0392896   -0.0199509   -0.0590135
    0.135328   -0.0515698    0.0669126   -0.0961897    -0.302029    0.0653486     0.207312    -0.113506     0.165168     -0.19655     0.154061     0.103673    0.0332201    -0.101188     0.994044    0.0355301  -0.00348665    -0.102558
    0.101828    0.0655679   -0.0435942   -0.0930788   0.00714722   -0.0896234     0.117685    -0.142801    0.0340489     0.332244    -0.126848     0.105724     0.384578     0.223932 -0.000102868     0.312942    -0.107089    -0.234902
-0.000867024    -0.213747  -0.00693512    -0.211603    0.0379168   -0.0194045    0.0659769     0.144677    -0.024184   -0.0814155    0.0367615     0.153065     0.229449   -0.0259531   -0.0150573    0.0379738     0.990768    -0.159967
    0.412274   -0.0111736    -0.171858    0.0176374    0.0912205   -0.0114295     0.190411    0.0712622    0.0906523     -0.31849   -0.0510019    0.0142409   -0.0103447   -0.0935269      0.18507    -0.333236    0.0395622     0.580595
    0.143875   -0.0570546     0.329721    0.0264317   -0.0360041    -0.107197      0.37089     0.105404    -0.186311    -0.016443    0.0420352   -0.0426303     0.522245     0.125922   -0.0552315     0.172451   -0.0411826      0.13121
  -0.0237169   -0.0157549    -0.111224  -0.00979862    -0.344521   -0.0618161   -0.0877206    -0.358851    0.0417251     0.209503     0.307966     0.207008   -0.0087044     0.997441    0.0649388    0.0129573   -0.0744074   -0.0970731
   0.0287747     0.187938    -0.538471    -0.137687    -0.294844     0.202652     0.071221    -0.200288     0.589988    0.0764701     0.125304    -0.302421     0.262832    -0.536622     0.999857   0.00608144    -0.108697     0.224707
   -0.200516    0.0445146    0.0833709     0.073535   -0.0878931    -0.124285     0.262059    0.0517947    -0.152744     0.234216    -0.185237     0.117962     0.402303    0.0488973    0.0769619     0.342539    0.0643187    -0.227794
   -0.221404     -0.32905    0.0155825    0.0623275    -0.553598  -0.00271621     0.226942     0.228227   -0.0179649   -0.0584413     0.198657    0.0117507     0.274541    -0.168536    -0.160839      -0.2812            1   -0.0413205
    0.302533    0.0334896   -0.0935642   -0.0989444     0.372302    -0.189239     0.364498   -0.0192204    -0.292662     -0.21544    -0.516574   0.00288538     0.178816   -0.0569873     0.464084    -0.557179     0.199877      0.69758

-0.711655
-0.425548
-0.346274
-0.410356
-0.430091
-0.379236
-0.680402
-0.416979
-0.247177
-0.419113
-0.401828
-0.359016
-0.657539
-0.395127
-0.129205
-0.424441
-0.151923
-0.306256
