   0.063316   -0.227028   0.0782747    0.150796  -0.0943842   0.0158333    0.516111   0.0331334   -0.067735    0.248032   -0.196212    0.124725    0.101939    0.085047   0.0734819   -0.108866   0.0365241   -0.129334
 -0.0151528     0.11025   0.0405711  -0.0943304   -0.120636    0.176505   0.0407991     0.26474   -0.211701   0.0159573   -0.135756   -0.124524   0.0130682    0.362161  -0.0547686    0.130097  -0.0594115  -0.0267499
 -0.0078254   0.0977339    0.194574  -0.0848746   0.0407443    0.178599  -0.0265231   -0.287555    0.418401   0.0955334   -0.294832   0.0214394  -0.0542276  -0.0465692    0.223617    0.183053   0.0860238  -0.0789859
   0.281668  -0.0353071  -0.0926317   0.0832929   -0.142708  -0.0478039    0.316063  -0.0753707  -0.0862001   0.0365013   -0.336119  -0.0947279    0.111184   0.0881501     0.10298    0.293356   0.0793941   -0.065563
 -0.0458402   -0.235227  0.00481384   0.0355972    0.205376   -0.182094   0.0646758     0.10635  -0.0642962   0.0353908    0.348073 -0.00944993    0.115254  -0.0218103  -0.0378234   -0.289779    0.316446   0.0842311
  0.0970851   -0.067006   0.0854463   -0.134248   0.0233496    0.192952      0.1442   -0.061637   0.0336015  -0.0893577  -0.0108308    0.231185   -0.108638   0.0508393   -0.128923  0.00428411  -0.0850474    0.212071
   0.216348   -0.154167    0.163821    0.149065   0.0134051  -0.0562284     0.14539   0.0827008    -0.18579   0.0178919   -0.222447    0.018561      0.4796  -0.0753029 -0.00436759 -0.00167087   -0.171193   0.0443724
   0.238214   0.0537613 -0.00684675   -0.112876   -0.206086   -0.039998  -0.0992115    0.254304  -0.0779673    0.194823   -0.201078   0.0173518  -0.0453169    0.415383  -0.0227803   -0.118455    0.159825  -0.0104874
   0.147197  -0.0711311    0.119653   0.0425347  -0.0118129    0.124125    0.144333   -0.121414     0.26498   -0.129359  -0.0222191   0.0332367   -0.133465  -0.0637378    0.333368   0.0240443   -0.212235   0.0217703
   0.232414  -0.0128963   -0.178883  -0.0844557  -0.0588167  -0.0703438    0.107133   -0.229048  -0.0631608    0.333689   -0.224482    0.145088    0.247798    0.145099   0.0306488    0.277453   -0.197962   -0.129176
 -0.0378576  -0.0989926  -0.0948852   -0.146995    0.250167   -0.174498   -0.045475   0.0761406  -0.0783009  -0.0188566   0.0534652   0.0862465   0.0751066   -0.226547   0.0203683    0.100387    0.480419  0.00298912
   0.180433  -0.0457736   -0.112104    0.145323  -0.0149505    0.124914   0.0101748    0.122082    0.211192    -0.13369  -0.0709344    0.199536   -0.135217   -0.195422   -0.164255  -0.0855133  0.00498691    0.310344
    0.29966   -0.148082    0.162042   0.0492464   -0.144926   -0.106114    0.315072   0.0264281   -0.217018  -0.0210838  -0.0587144  -0.0718854    0.271793    0.047983   0.0933203    0.099666   -0.125799   0.0840149
  0.0259413   0.0456998   -0.230391  -0.0629886   -0.235147    0.111492  -0.0245216   0.0532369    0.119406    0.155391  -0.0278657  -0.0704497   0.0694918    0.431579   0.0865963  -0.0478495   0.0917786  -0.0457228
 0.00204776   -0.119708     0.22677   0.0317632   -0.151014    0.172098  -0.0123209   -0.127416    0.195712    0.144022   0.0347507  -0.0697344   0.0658697  -0.0913376    0.148606  -0.0338054   -0.191267    0.179999
 -0.0655077  -0.0360834    0.120971    0.277144   -0.219701   -0.175562    0.200378  -0.0255693   -0.246036    0.289439   -0.288539    0.148812    0.156219  -0.0382932 -0.00191938    0.196529   0.0833595  -0.0713972
  -0.181766   -0.288611    0.126623     0.13654   0.0391917  -0.0579246   0.0984492   0.0833608  -0.0887455   0.0229052    0.142892  -0.0380156    0.058832  -0.0845337   -0.195964    -0.18987    0.406499   0.0377815
 -0.0559711   0.0495292    0.184087   0.0312175    0.123118   -0.114659    0.120953  -0.0461236    -0.15201   0.0340655   -0.164196    0.388237   0.0564569   -0.125515    -0.11381   -0.173126  -0.0711459    0.284113

 -0.380309
 -0.169679
 -0.231397
 -0.196857
 -0.192962
 -0.218113
 -0.253403
  -0.22091
 -0.164173
 -0.144674
-0.0993234
 -0.204386
 -0.288186
 -0.304771
 -0.127554
 -0.181267
-0.0584236
 -0.140533
